svm_type c_svc
kernel_type rbf
gamma 0.0078125
nr_class 2
total_sv 14
rho 0.0997188
label 0 1
nr_sv 11 3
SV
0.02153617218573776 0:-0.494241 1:-1 2:-0.0658305 3:-0.810349 4:-1 5:-0.735639 6:-1 7:-0.177723 8:1 9:-1 10:0.272033 11:-1 12:-0.386987 13:-0.249042 14:-1 15:-0.402285 16:-0.419554 17:-1 18:-1 19:0.0574652 20:-1 21:-1 22:-1 23:-1 24:0.289903 25:-1 26:-1 27:-1 28:-1 29:-1 30:-0.867819 31:-0.624526 32:0.425294 33:-1 34:-0.394654 35:-0.00492014 36:-1 37:-0.0613072 38:-1 39:-1 40:-1 41:0.563205 42:-1 43:-0.681999 44:-1 45:-0.241373 46:-1 47:-1 48:-1 49:-1 50:-0.48582 51:-1 52:-1 53:-1 54:0.164756 55:-1 56:-1 57:-1 58:0.862072 59:-0.21838 60:-0.21838 61:-1 62:0.499054 63:0.0482907 64:-0.00381332 65:0.43844 66:-1 
0.6994623425359141 0:-0.782178 1:-1 2:-0.731775 3:-0.183167 4:-1 5:0.138609 6:-1 7:-0.150038 8:0.148508 9:-1 10:-0.452143 11:-0.693068 12:-0.471947 13:0.29373 14:-1 15:-0.227721 16:1 17:-1 18:-1 19:-0.089113 20:-1 21:-1 22:-1 23:-1 24:1 25:0.631002 26:-1 27:-1 28:-0.0198 29:-1 30:-0.886138 31:-1 32:-0.649221 33:-1 34:-1 35:1 36:-1 37:-0.191418 38:-1 39:-1 40:-1 41:-0.663369 42:-1 43:0.369641 44:-1 45:-0.564356 46:-1 47:-1 48:-1 49:-1 50:-0.713155 51:-1 52:-0.531358 53:-1 54:0.504959 55:-1 56:-1 57:-1 58:-0.0376166 59:-0.326737 60:-0.326737 61:-1 62:-1 63:-0.0970223 64:-0.570958 65:-0.17397 66:-1 
0.5265675097304315 0:-0.721524 1:-1 2:0.0287704 3:-0.373412 4:-1 5:-0.12658 6:-1 7:-0.275559 8:-1 9:-0.569631 10:0.751055 11:0.569626 12:-1 13:-0.172994 14:-1 15:-0.012649 16:-0.360772 17:-1 18:-1 19:-0.417735 20:-1 21:-0.417729 22:-1 23:-1 24:-0.431797 25:-1 26:-1 27:-1 28:-0.582286 29:-1 30:-1 31:0.240527 32:0.121157 33:-1 34:1 35:-1 36:-1 37:-0.172994 38:-1 39:-1 40:-1 41:-0.569631 42:-1 43:0.751055 44:-1 45:0.392403 46:-0.653462 47:-1 48:-1 49:-1 50:-0.627771 51:-1 52:-1 53:-1 54:0.603379 55:-1 56:-1 57:-1 58:0.230398 59:-1 60:-1 61:-0.622521 62:-1 63:-1 64:-0.451488 65:0.0560434 66:-1 
0.3012977103743927 0:1 1:-1 2:0.641861 3:1 4:-1 5:-1 6:-1 7:-1 8:0.757562 9:-1 10:-1 11:-1 12:0.61616 13:0.979796 14:-1 15:-0.212121 16:-1 17:-1 18:-1 19:-1 20:-1 21:-1 22:-1 23:-1 24:0.360267 25:-1 26:-1 27:-1 28:1 29:-1 30:-1 31:-0.0100941 32:0.0735941 33:-1 34:-1 35:-1 36:-1 37:-0.505051 38:-1 39:-1 40:-1 41:-1 42:-1 43:-1 44:-1 45:1 46:-1 47:-1 48:-1 49:-1 50:-0.550547 51:-1 52:-1 53:-1 54:-0.23232 55:-1 56:-1 57:-1 58:-0.0181765 59:-1 60:0.0302938 61:-1 62:-1 63:-1 64:0.313126 65:0.264073 66:-1 
0.07148129991747995 0:-0.482361 1:-1 2:-0.203208 3:-0.223526 4:-1 5:-0.458836 6:-1 7:-0.0742068 8:-1 9:-1 10:0.139205 11:-0.635284 12:-0.372533 13:0.345099 14:-1 15:0.223535 16:0.782345 17:-1 18:-1 19:-0.188242 20:-1 21:-1 22:-1 23:-1 24:-0.339865 25:-1 26:-0.277955 27:-1 28:-1 29:-1 30:-1 31:0.345093 32:-0.478986 33:-1 34:-0.0705991 35:-1 36:-1 37:-0.615693 38:-1 39:-1 40:-0.364689 41:0.399973 42:-1 43:-0.186266 44:-1 45:-0.74117 46:-0.838968 47:-1 48:-1 49:-1 50:0.0732674 51:-1 52:-0.44313 53:-1 54:0.490215 55:-1 56:-1 57:-1 58:-0.237656 59:-0.800014 60:-0.400007 61:-1 62:-1 63:0.609418 64:-0.490185 65:0.717635 66:-1 
0.8506833109837223 0:-0.352935 1:-1 2:-1 3:-0.029403 4:-1 5:0.352945 6:0.488424 7:-1 8:-1 9:1 10:-1 11:-0.0882262 12:-1 13:-0.519604 14:-1 15:0.529426 16:-1 17:-1 18:-1 19:-1 20:-1 21:-1 22:-1 23:-1 24:-1 25:-1 26:-1 27:-1 28:0.941194 29:-1 30:-0.661762 31:-0.0392003 32:0.0420272 33:-1 34:-1 35:-1 36:-1 37:0.441171 38:-1 39:-1 40:-1 41:1 42:-1 43:-1 44:-1 45:0.941172 46:-1 47:-1 48:-1 49:-1 50:-0.564344 51:-1 52:-1 53:-1 54:-0.254893 55:-1 56:-1 57:-1 58:-0.0470451 59:1 60:1 61:-1 62:-1 63:-0.105869 64:-1 65:-1 66:-1 
0.5005549074701825 0:0.182787 1:-1 2:0.165199 3:-0.290318 4:-1 5:-0.25807 6:-0.455834 7:1 8:0.870951 9:-1 10:-0.107527 11:0.666656 12:-1 13:0.405026 14:-0.505359 15:-0.440869 16:-0.456974 17:-1 18:-1 19:-0.25807 20:-1 21:-1 22:-1 23:-1 24:-0.758655 25:-1 26:0.319811 27:-1 28:-0.645151 29:-1 30:-0.87634 31:-0.648733 32:-0.238089 33:-1 34:-0.43368 35:-0.0691272 36:-1 37:-0.473119 38:-1 39:-1 40:-0.419337 41:-1 42:-1 43:0.487446 44:-1 45:-0.763434 46:-1 47:-1 48:-1 49:-1 50:-0.853279 51:-1 52:0.526861 53:-1 54:-0.727589 55:-1 56:-1 57:-1 58:-0.651601 59:-1 60:-1 61:-1 62:-1 63:0.307544 64:-1 65:0.345625 66:-1 
0.1762300015238668 0:0.018513 1:-1 2:0.00335925 3:0.0694486 4:-1 5:0.0648021 6:-0.531439 7:-0.470086 8:-1 9:-0.685197 10:-0.231474 11:0.148149 12:-0.01232 13:-0.0925855 14:-1 15:-0.277771 16:-0.532421 17:-1 18:-1 19:-0.36111 20:-1 21:-1 22:-1 23:-1 24:0.039087 25:-1 26:-1 27:-1 28:-0.388872 29:-1 30:-1 31:-0.0925781 32:0.312171 33:-1 34:-0.512363 35:-0.465595 36:-1 37:-0.546293 38:-1 39:-1 40:0.500014 41:-0.370359 42:-1 43:0.537053 44:-1 45:-0.185185 46:-0.746516 47:-0.0336082 48:-1 49:-1 50:-0.589647 51:-1 52:-1 53:-1 54:0.641988 55:-1 56:-1 57:-1 58:-0.399981 59:-0.685197 60:-0.370359 61:-1 62:-1 63:-0.437018 64:-0.598778 65:-1 66:-1 
0.508571093372496 0:-0.326535 1:-1 2:-0.170699 3:-0.326535 4:-0.483616 5:-0.530619 6:-0.483616 7:0.167979 8:-0.408172 9:-1 10:0.411556 11:-0.367351 12:-1 13:-0.166673 14:-1 15:-0.204087 16:-1 17:-1 18:-1 19:-0.765309 20:-1 21:-1 22:-1 23:-1 24:-0.541954 25:-1 26:-0.373757 27:-1 28:-1 29:-1 30:-0.765308 31:1 32:0.0845416 33:-1 34:0.0748124 35:-0.411084 36:-1 37:-0.666669 38:-1 39:-1 40:0.65305 41:-1 42:-1 43:-0.435377 44:-1 45:0.346929 46:-0.720645 47:-1 48:-1 49:-1 50:-0.229744 51:-1 52:0.448952 53:-1 54:-0.482995 55:-1 56:-1 57:-1 58:-0.00816485 59:-0.653067 60:0.0407997 61:-1 62:-1 63:-0.0693885 64:-0.115656 65:-0.148691 66:-1 
0.3218817407927601 0:0.692308 1:-1 2:-0.166445 3:-0.492311 4:-1 5:-0.292317 6:-1 7:-0.119534 8:-1 9:-0.476914 10:0.702555 11:-0.0461591 12:-0.179467 13:0.256409 14:-1 15:1 16:-1 17:-1 18:-1 19:-1 20:-1 21:-1 22:-1 23:-1 24:0.0358999 25:-1 26:-1 27:-1 28:0.015378 29:-1 30:-1 31:0.00512871 32:-0.454948 33:-1 34:-0.18973 35:-1 36:-1 37:-1 38:-1 39:-1 40:0.661528 41:0.0461376 42:-1 43:-0.574347 44:-1 45:-0.66153 46:-1 47:-1 48:-1 49:-1 50:0.171365 51:-1 52:-0.271785 53:-1 54:-0.220515 55:-1 56:-1 57:-1 58:-1 59:-0.476914 60:-1 61:-1 62:-1 63:0.403092 64:1 65:-0.358223 66:-1 
0.1259146976539451 0:-0.343277 1:-1 2:-0.191315 3:-0.753737 4:-1 5:-0.656727 6:-1 7:-0.359359 8:-0.134356 9:-1 10:0.238805 11:-1 12:-1 13:-0.0248838 14:-1 15:0.164177 16:0.507474 17:-1 18:-1 19:-0.313431 20:-1 21:-1 22:-1 23:-1 24:-1 25:-1 26:-1 27:-1 28:-1 29:-1 30:-1 31:0.462694 32:-0.206824 33:-1 34:-1 35:-0.569308 36:-1 37:-0.512434 38:-1 39:-1 40:-0.194049 41:0.522372 42:-1 43:-0.587074 44:-1 45:0.641796 46:-0.591398 47:-1 48:-1 49:-1 50:0.135811 51:-1 52:-0.293558 53:-1 54:-0.243771 55:-1 56:-1 57:-1 58:-0.0328214 59:0.0149259 60:0.522372 61:-1 62:-1 63:0.814923 64:0.940287 65:-0.377412 66:-1 
-1.336435263596065 0:-0.94731 1:-0.558987 2:-0.935118 3:-0.901198 4:1 5:-0.779638 6:1 7:-1 8:-0.930516 9:-0.79641 10:-1 11:-0.480253 12:-0.872267 13:-1 14:0.0466903 15:-1 16:-0.939501 17:1 18:-0.92789 19:-0.862277 20:-0.898697 21:-0.228759 22:1 23:-0.318461 24:-1 25:0.380941 26:-0.558979 27:1 28:-0.960466 29:1 30:-0.697009 31:-1 32:-1 33:-0.737613 34:-0.747729 35:-0.965429 36:1 37:-1 38:1 39:-0.383814 40:-0.805978 41:-0.470658 42:0.343767 43:-0.900593 44:1 45:-0.89462 46:1 47:1 48:-0.765871 49:1 50:-0.945617 51:1 52:-0.0930089 53:-0.674061 54:-1 55:-0.514099 56:0.00572563 57:0.917819 58:-1 59:-0.837141 60:-0.633551 61:1 62:0.561917 63:-0.817963 64:-0.948087 65:-0.950026 66:0.45766 
-2 0:-1 1:-1 2:-1 3:0.434792 4:-1 5:1 6:-1 7:-1 8:-1 9:-1 10:-1 11:-1 12:-1 13:-0.289859 14:1 15:-1 16:-1 17:-1 18:-1 19:1 20:-1 21:1 22:-1 23:-1 24:-1 25:-1 26:-1 27:-1 28:-1 29:-1 30:1 31:0.420293 32:-1 33:-1 34:-1 35:-1 36:-1 37:-1 38:-1 39:-1 40:-1 41:-1 42:-1 43:-1 44:-1 45:-1 46:-1 47:-1 48:1 49:-1 50:1 51:-1 52:-1 53:-1 54:0.101448 55:-1 56:-1 57:-1 58:-1 59:-1 60:-1 61:-1 62:-1 63:-1 64:0.88404 65:-1 66:-1 
-0.7677455229448635 0:-0.887536 1:1 2:-1 3:-0.957826 4:-0.353255 5:-0.750152 6:-0.223957 7:-1 8:-1 9:-0.435163 10:-0.964642 11:-0.900955 12:-0.96592 13:-1 14:0.146327 15:-1 16:-0.967731 17:0.734057 18:1 19:-1 20:1 21:-0.64727 22:0.900791 23:1 24:-0.971316 25:1 26:1 27:0.778485 28:-1 29:0.133791 30:-0.85303 31:-1 32:-1 33:1 34:-0.427887 35:-1 36:0.719163 37:-1 38:0.455118 39:1 40:-0.965494 41:-0.934823 42:1 43:-1 44:0.649144 45:-1 46:0.486927 47:0.067112 48:-0.706071 49:-0.442737 50:-1 51:0.00941076 52:-0.727789 53:1 54:-1 55:1 56:1 57:1 58:-1 59:-0.782742 60:-0.847919 61:0.524409 62:1 63:-1 64:-1 65:-1 66:1 
