svm_type c_svc
kernel_type rbf
gamma 0.0078125
nr_class 2
total_sv 9
rho 0.197256
label 0 1
nr_sv 6 3
SV
0.7065955789508175 0:-0.831683 1:-0.326737 2:-1 3:-1 4:-1 5:-1 6:-1 7:-0.597529 8:-1 9:-0.750495 10:-1 11:-1 12:-1 13:-1 14:-1 15:-0.422912 16:1 17:-0.0273828 18:-1 19:-1 20:0.0165037 21:-1 22:-1 23:-1 24:-1 25:-1 26:-0.726732 27:1 28:-1 29:-1 30:-0.162918 31:-0.498353 32:1 33:-1 34:-0.483287 35:-1 36:-1 37:-1 38:-1 39:1 40:-1 41:-1 42:-0.39274 43:-1 44:-1 45:-1 46:-1 47:-1 48:-1 49:-1 50:-0.455444 51:-1 52:-1 
0.2060839296749159 0:-1 1:-1 2:-1 3:-1 4:0.415631 5:-1 6:-1 7:-1 8:-1 9:-0.236364 10:-1 11:-1 12:-1 13:-1 14:-1 15:-0.411255 16:-1 17:-1 18:-1 19:-1 20:1 21:-1 22:-1 23:-1 24:-1 25:-1 26:-1 27:0.524158 28:-1 29:-1 30:0.0247886 31:-1 32:0.22424 33:-1 34:-1 35:-1 36:-1 37:-1 38:-1 39:0.5303 40:-1 41:-1 42:-0.0707095 43:-1 44:-1 45:-1 46:-1 47:-1 48:-1 49:-1 50:1 51:-1 52:-1 
0.1082953125345854 0:-1 1:-1 2:-0.51169 3:-1 4:-1 5:1 6:-1 7:-1 8:-1 9:-0.336836 10:-1 11:-1 12:-0.51169 13:-1 14:-1 15:-0.105264 16:-0.59109 17:-1 18:-1 19:-1 20:0.350882 21:-1 22:-1 23:-1 24:-1 25:-1 26:-1 27:0.320171 28:-1 29:-1 30:-0.110044 31:1 32:0.594728 33:-1 34:0.373379 35:-1 36:-1 37:-1 38:-1 39:0.993418 40:-1 41:-1 42:-0.596489 43:-1 44:-1 45:-1 46:-1 47:-1 48:-1 49:-1 50:0.592109 51:-1 52:-1 
0.918421509991186 0:-0.817199 1:-1 2:-1 3:-0.079153 4:-1 5:-0.182779 6:-1 7:-1 8:-1 9:0.896781 10:-1 11:-1 12:-1 13:-1 14:-1 15:0.0445498 16:-0.665846 17:-1 18:-1 19:-1 20:-0.290323 21:-0.0967661 22:-1 23:-1 24:-1 25:-1 26:-1 27:0.734202 28:-1 29:-1 30:1 31:-0.455186 32:0.303222 33:-1 34:-1 35:-0.802154 36:-1 37:-1 38:-1 39:0.448036 40:-0.455834 41:0.282715 42:0.154123 43:-0.358662 44:0.0563387 45:-1 46:-1 47:-1 48:-1 49:-1 50:-0.408606 51:-1 52:-1 
1.481802082858751 0:1 1:1 2:-1 3:0.259426 4:-1 5:-1 6:-1 7:-1 8:-1 9:-0.258817 10:-1 11:-1 12:0.0915164 13:-1 14:-1 15:1 16:-1 17:-1 18:-1 19:-1 20:-0.137254 21:-1 22:-1 23:-1 24:-1 25:-1 26:-1 27:0.779509 28:-1 29:-1 30:0.491968 31:-1 32:-0.405878 33:-1 34:-1 35:-1 36:-1 37:-1 38:-1 39:-0.504898 40:-1 41:-1 42:-1 43:-1 44:-1 45:-1 46:-1 47:-1 48:-1 49:-1 50:-0.029414 51:-1 52:-1 
0.9691725067688955 0:-0.59523 1:-0.730144 2:-1 3:-0.660137 4:-1 5:0.206338 6:-1 7:-1 8:-1 9:1 10:-1 11:-1 12:-1 13:-1 14:-1 15:-0.38322 16:0.973134 17:-1 18:-1 19:-1 20:-0.534392 21:1 22:-1 23:-1 24:-1 25:-1 26:-0.780948 27:0.354367 28:-1 29:-1 30:0.207795 31:-0.195774 32:0.282537 33:-1 34:-0.585784 35:-1 36:-1 37:-1 38:-1 39:-0.0648083 40:-0.59834 41:-1 42:-0.148143 43:-1 44:-0.220296 45:-1 46:-1 47:-1 48:-1 49:1 50:0.222222 51:-1 52:-1 
-1.380161940495817 0:-0.552101 1:-0.267068 2:1 3:1 4:-0.83215 5:0.365253 6:1 7:-0.123717 8:-0.0628706 9:-0.124778 10:0.999165 11:1 12:1 13:-0.727407 14:-0.636071 15:-0.953468 16:-0.981385 17:1 18:1 19:0.453465 20:-0.982437 21:0.20714 22:-0.665316 23:-0.88637 24:-0.901363 25:1 26:-0.790663 27:-0.915872 28:1 29:1 30:-0.959503 31:-1 32:-0.709706 33:-0.479372 34:1 35:-0.790663 36:-0.719735 37:0.0460766 38:-0.354756 39:-0.979834 40:1 41:1 42:-0.908184 43:1 44:1 45:1 46:1 47:1 48:1 49:0.584452 50:-1 51:-0.448746 52:-0.583533 
-2 0:-1 1:0.47824 2:-1 3:-1 4:-1 5:-1 6:-1 7:-1 8:-1 9:-1 10:-1 11:-1 12:-1 13:-1 14:-1 15:0.267085 16:-0.324419 17:-1 18:-1 19:-1 20:-1 21:-1 22:-1 23:-1 24:-1 25:-1 26:1 27:0.308466 28:-1 29:-1 30:0.470358 31:-1 32:-1 33:-1 34:-1 35:1 36:-1 37:-1 38:-1 39:-1 40:-1 41:-1 42:1 43:-1 44:-1 45:-1 46:-1 47:-1 48:-1 49:-1 50:-1 51:-1 52:-1 
-1.010208980283334 0:-0.934822 1:-0.847919 2:-0.786573 3:-0.726379 4:1 5:0.0198358 6:-0.64429 7:1 8:1 9:-0.935589 10:1 11:-0.46642 12:-0.905144 13:1 14:1 15:-1 16:-1 17:-0.937228 18:-0.051401 19:1 20:-1 21:-0.570601 22:1 23:1 24:1 25:0.0671597 26:-0.688432 27:-1 28:0.18246 29:0.867401 30:-1 31:-0.805746 32:-0.974184 33:1 34:0.500613 35:-0.794251 36:1 37:1 38:1 39:-0.956974 40:-0.0622707 41:0.295837 42:-1 43:0.143292 44:0.506459 45:-0.786573 46:0.600668 47:0.632015 48:0.493988 49:0.811504 50:-1 51:1 52:1 
